<?xml version="1.0"?>
<opencv_storage>
<haarcascade421 type_id="opencv-haar-classifier">
  <size>24 24</size>
  <stages>
    <_>
      <!-- stage 0 -->
      <trees>
        <_>
          <!-- tree 0 -->
          <_>
            <!-- root node -->
            <feature>
              <rects>
                <_>
                  4 6 16 6 -1.</_>
                <_>
                  4 9 16 3 2.</_></rects>
              <tilted>0</tilted></feature>
            <threshold>0.0275633297860622</threshold>
            <left_val>-0.7620465755462647</left_val>
            <right_node>1</right_node></_>
          <_>
            <!-- node 1 -->
            <feature>
              <rects>
                <_>
                  5 10 15 8 -1.</_>
                <_>
                  5 14 15 4 2.</_></rects>
              <tilted>0</tilted></feature>
            <threshold>-2.8397710993885994e-003</threshold>
            <left_val>0.8644014000892639</left_val>
            <right_val>-0.4476534128189087</right_val></_></_>
        <_>
          <!-- tree 1 -->
          <_>
            <!-- root node -->
            <feature>
              <rects>
                <_>
                  0 1 24 4 -1.</_>
                <_>
                  8 1 8 4 3.</_></rects>
              <tilted>0</tilted></feature>
            <threshold>0.0999613031744957</threshold>
            <left_node>1</left_node>
            <right_val>0.7608178257942200</right_val></_>
          <_>
            <!-- node 1 -->
            <feature>
              <rects>
                <_>
                  8 4 8 5 -1.</_>
                <_>
                  10 4 4 5 2.</_></rects>
              <tilted>0</tilted></feature>
            <threshold>7.3644421063363552e-003</threshold>
            <left_val>-0.7692394256591797</left_val>
            <right_val>0.0814046636223793</right_val></_></_>
        <_>
          <!-- tree 2 -->
          <_>
            <!-- root node -->
            <feature>
              <rects>
                <_>
                  11 5 8 10 -1.</_>
                <_>
                  11 5 4 5 2.</_>
                <_>
                  15 10 4 5 2.</_></rects>
              <tilted>0</tilted></feature>
            <threshold>0.0100110797211528</threshold>
            <left_val>-0.4662610888481140</left_val>
            <right_node>1</right_node></_>
          <_>
            <!-- node 1 -->
            <feature>
              <rects>
                <_>
                  6 5 2 15 -1.</_>
                <_>
                  6 10 2 5 3.</_></rects>
              <tilted>0</tilted></feature>
            <threshold>6.0792868025600910e-003</threshold>
            <left_val>-0.3440588116645813</left_val>
            <right_val>0.7671377062797546</right_val></_></_>
        <_>
          <!-- tree 3 -->
          <_>
            <!-- root node -->
            <feature>
              <rects>
                <_>
                  9 2 4 6 -1.</_>
                <_>
                  7 4 4 2 3.</_></rects>
              <tilted>1</tilted></feature>
            <threshold>-2.6396568864583969e-003</threshold>
            <left_node>1</left_node>
            <right_val>-0.5766134858131409</right_val></_>
          <_>
            <!-- node 1 -->
            <feature>
              <rects>
                <_>
                  13 1 10 8 -1.</_>
                <_>
                  13 1 5 4 2.</_>
                <_>
                  18 5 5 4 2.</_></rects>
              <tilted>0</tilted></feature>
            <threshold>0.0116732297465205</threshold>
            <left_val>-0.0686182230710983</left_val>
            <right_val>0.7086995840072632</right_val></_></_>
        <_>
          <!-- tree 4 -->
          <_>
            <!-- root node -->
            <feature>
              <rects>
                <_>
                  7 20 10 4 -1.</_>
                <_>
                  7 22 10 2 2.</_></rects>
              <tilted>0</tilted></feature>
            <threshold>-6.0689141973853111e-003</threshold>
            <left_val>0.4637516140937805</left_val>
            <right_node>1</right_node></_>
          <_>
            <!-- node 1 -->
            <feature>
              <rects>
                <_>
                  8 16 16 8 -1.</_>
                <_>
                  8 16 8 4 2.</_>
                <_>
                  16 20 8 4 2.</_></rects>
              <tilted>0</tilted></feature>
            <threshold>-0.0214614793658257</threshold>
            <left_val>0.1623961031436920</left_val>
            <right_val>-0.5547294020652771</right_val></_></_>
        <_>
          <!-- tree 5 -->
          <_>
            <!-- root node -->
            <feature>
              <rects>
                <_>
                  1 6 6 7 -1.</_>
                <_>
                  4 6 3 7 2.</_></rects>
              <tilted>0</tilted></feature>
            <threshold>0.0207412391901016</threshold>
            <left_node>1</left_node>
            <right_val>0.4998255968093872</right_val></_>
          <_>
            <!-- node 1 -->
            <feature>
              <rects>
                <_>
                  1 0 6 8 -1.</_>
                <_>
                  1 0 3 4 2.</_>
                <_>
                  4 4 3 4 2.</_></rects>
              <tilted>0</tilted></feature>
            <threshold>-0.0118729695677757</threshold>
            <left_val>0.3388566970825195</left_val>
            <right_val>-0.3882083892822266</right_val></_></_>
        <_>
          <!-- tree 6 -->
          <_>
            <!-- root node -->
            <feature>
              <rects>
                <_>
                  16 6 3 6 -1.</_>
                <_>
                  16 9 3 3 2.</_></rects>
              <tilted>0</tilted></feature>
            <threshold>1.2477240525186062e-003</threshold>
            <left_node>1</left_node>
            <right_val>0.2049901038408279</right_val></_>
          <_>
            <!-- node 1 -->
            <feature>
              <rects>
                <_>
                  0 13 24 11 -1.</_>
                <_>
                  6 13 12 11 2.</_></rects>
              <tilted>0</tilted></feature>
            <threshold>-0.2548375129699707</threshold>
            <left_val>0.6023789048194885</left_val>
            <right_val>-0.5385344028472900</right_val></_></_></trees>
      <stage_threshold>-2.4779241085052490</stage_threshold>
      <parent>-1</parent>
      <next>-1</next></_>
    <_>
      <!-- stage 1 -->
      <trees>
        <_>
          <!-- tree 0 -->
          <_>
            <!-- root node -->
            <feature>
              <rects>
                <_>
                  3 6 17 6 -1.</_>
                <_>
                  3 9 17 3 2.</_></rects>
              <tilted>0</tilted></feature>
            <threshold>0.0232061799615622</threshold>
            <left_val>-0.8000372052192688</left_val>
            <right_node>1</right_node></_>
          <_>
            <!-- node 1 -->
            <feature>
              <rects>
                <_>
                  6 1 12 8 -1.</_>
                <_>
                  10 1 4 8 3.</_></rects>
              <tilted>0</tilted></feature>
            <threshold>0.0104300603270531</threshold>
            <left_val>-0.7248669266700745</left_val>
            <right_val>0.7887465953826904</right_val></_></_>
        <_>
          <!-- tree 1 -->
          <_>
            <!-- root node -->
            <feature>
              <rects>
                <_>
                  0 0 24 4 -1.</_>
                <_>
                  6 0 12 4 2.</_></rects>
              <tilted>0</tilted></feature>
            <threshold>0.0423899702727795</threshold>
            <left_node>1</left_node>
            <right_val>0.6149166226387024</right_val></_>
          <_>
            <!-- node 1 -->
            <feature>
              <rects>
                <_>
                  8 14 8 6 -1.</_>
                <_>
                  8 16 8 2 3.</_></rects>
              <tilted>0</tilted></feature>
            <threshold>-6.1089321970939636e-003</threshold>
            <left_val>-0.0385182015597820</left_val>
            <right_val>-0.6905516982078552</right_val></_></_>
        <_>
          <!-- tree 2 -->
          <_>
            <!-- root node -->
            <feature>
              <rects>
                <_>
                  6 5 2 8 -1.</_>
                <_>
                  6 9 2 4 2.</_></rects>
              <tilted>0</tilted></feature>
            <threshold>2.1494580432772636e-003</threshold>
            <left_val>-0.9029275774955750</left_val>
            <right_node>1</right_node></_>
          <_>
            <!-- node 1 -->
            <feature>
              <rects>
                <_>
                  17 5 1 8 -1.</_>
                <_>
                  17 9 1 4 2.</_></rects>
              <tilted>0</tilted></feature>
            <threshold>2.5988390552811325e-004</threshold>
            <left_val>-0.9427499771118164</left_val>
            <right_val>0.4703581929206848</right_val></_></_>
        <_>
          <!-- tree 3 -->
          <_>
            <!-- root node -->
            <feature>
              <rects>
                <_>
                  12 10 3 12 -1.</_>
                <_>
                  12 13 3 6 2.</_></rects>
              <tilted>0</tilted></feature>
            <threshold>-1.5730649465695024e-005</threshold>
            <left_val>0.2060450017452240</left_val>
            <right_node>1</right_node></_>
          <_>
            <!-- node 1 -->
            <feature>
              <rects>
                <_>
                  14 5 6 9 -1.</_>
                <_>
                  16 7 2 9 3.</_></rects>
              <tilted>1</tilted></feature>
            <threshold>-6.3750718254595995e-004</threshold>
            <left_val>-0.1218582987785339</left_val>
            <right_val>-0.9827253222465515</right_val></_></_>
        <_>
          <!-- tree 4 -->
          <_>
            <!-- root node -->
            <feature>
              <rects>
                <_>
                  17 0 6 14 -1.</_>
                <_>
                  20 0 3 14 2.</_></rects>
              <tilted>0</tilted></feature>
            <threshold>-0.0220488794147968</threshold>
            <left_val>0.5478020906448364</left_val>
            <right_node>1</right_node></_>
          <_>
            <!-- node 1 -->
            <feature>
              <rects>
                <_>
                  9 5 15 4 -1.</_>
                <_>
                  14 5 5 4 3.</_></rects>
              <tilted>0</tilted></feature>
            <threshold>-1.9246609881520271e-003</threshold>
            <left_val>-0.0864735171198845</left_val>
            <right_val>-0.9335219264030457</right_val></_></_>
        <_>
          <!-- tree 5 -->
          <_>
            <!-- root node -->
            <feature>
              <rects>
                <_>
                  2 2 4 16 -1.</_>
                <_>
                  4 2 2 16 2.</_></rects>
              <tilted>0</tilted></feature>
            <threshold>0.0193415302783251</threshold>
            <left_node>1</left_node>
            <right_val>0.5595223903656006</right_val></_>
          <_>
            <!-- node 1 -->
            <feature>
              <rects>
                <_>
                  0 4 24 20 -1.</_>
                <_>
                  6 4 12 20 2.</_></rects>
              <tilted>0</tilted></feature>
            <threshold>-0.1739351004362106</threshold>
            <left_val>0.5105757713317871</left_val>
            <right_val>-0.4857706129550934</right_val></_></_>
        <_>
          <!-- tree 6 -->
          <_>
            <!-- root node -->
            <feature>
              <rects>
                <_>
                  0 9 24 4 -1.</_>
                <_>
                  0 10 24 2 2.</_></rects>
              <tilted>0</tilted></feature>
            <threshold>1.2822329881601036e-004</threshold>
            <left_node>1</left_node>
            <right_val>0.1639623045921326</right_val></_>
          <_>
            <!-- node 1 -->
            <feature>
              <rects>
                <_>
                  9 4 4 12 -1.</_>
                <_>
                  9 8 4 4 3.</_></rects>
              <tilted>0</tilted></feature>
            <threshold>-0.0168777294456959</threshold>
            <left_val>0.2184590995311737</left_val>
            <right_val>-0.5990154147148132</right_val></_></_>
        <_>
          <!-- tree 7 -->
          <_>
            <!-- root node -->
            <feature>
              <rects>
                <_>
                  6 3 8 8 -1.</_>
                <_>
                  10 3 4 8 2.</_></rects>
              <tilted>0</tilted></feature>
            <threshold>4.1908340790541843e-005</threshold>
            <left_node>1</left_node>
            <right_val>0.1094631031155586</right_val></_>
          <_>
            <!-- node 1 -->
            <feature>
              <rects>
                <_>
                  5 5 4 2 -1.</_>
                <_>
                  5 6 4 1 2.</_></rects>
              <tilted>0</tilted></feature>
            <threshold>-3.1364848837256432e-003</threshold>
            <left_val>0.2292053997516632</left_val>
            <right_val>-0.5488575100898743</right_val></_></_>
        <_>
          <!-- tree 8 -->
          <_>
            <!-- root node -->
            <feature>
              <rects>
                <_>
                  0 4 23 10 -1.</_>
                <_>
                  0 9 23 5 2.</_></rects>
              <tilted>0</tilted></feature>
            <threshold>3.8818780012661591e-005</threshold>
            <left_node>1</left_node>
            <right_val>0.0667141228914261</right_val></_>
          <_>
            <!-- node 1 -->
            <feature>
              <rects>
                <_>
                  7 2 10 20 -1.</_>
                <_>
                  7 12 10 10 2.</_></rects>
              <tilted>0</tilted></feature>
            <threshold>-0.1537366956472397</threshold>
            <left_val>-0.8609789013862610</left_val>
            <right_val>0.0263133607804775</right_val></_></_>
        <_>
          <!-- tree 9 -->
          <_>
            <!-- root node -->
            <feature>
              <rects>
                <_>
                  6 17 12 6 -1.</_>
                <_>
                  6 19 12 2 3.</_></rects>
              <tilted>0</tilted></feature>
            <threshold>1.5378629541373812e-005</threshold>
            <left_node>1</left_node>
            <right_val>0.1461421996355057</right_val></_>
          <_>
            <!-- node 1 -->
            <feature>
              <rects>
                <_>
                  18 12 4 6 -1.</_>
                <_>
                  19 13 2 6 2.</_></rects>
              <tilted>1</tilted></feature>
            <threshold>-7.5180837884545326e-003</threshold>
            <left_val>0.2767699062824249</left_val>
            <right_val>-0.5103964805603027</right_val></_></_>
        <_>
          <!-- tree 10 -->
          <_>
            <!-- root node -->
            <feature>
              <rects>
                <_>
                  0 4 18 15 -1.</_>
                <_>
                  0 9 18 5 3.</_></rects>
              <tilted>0</tilted></feature>
            <threshold>1.7099220713134855e-004</threshold>
            <left_node>1</left_node>
            <right_val>0.0336042717099190</right_val></_>
          <_>
            <!-- node 1 -->
            <feature>
              <rects>
                <_>
                  0 22 24 2 -1.</_>
                <_>
                  6 22 12 2 2.</_></rects>
              <tilted>0</tilted></feature>
            <threshold>-0.0344545915722847</threshold>
            <left_val>0.5839638710021973</left_val>
            <right_val>-0.4918155968189240</right_val></_></_>
        <_>
          <!-- tree 11 -->
          <_>
            <!-- root node -->
            <feature>
              <rects>
                <_>
                  9 1 4 6 -1.</_>
                <_>
                  7 3 4 2 3.</_></rects>
              <tilted>1</tilted></feature>
            <threshold>-2.0996539387851954e-004</threshold>
            <left_val>0.0788373425602913</left_val>
            <right_node>1</right_node></_>
          <_>
            <!-- node 1 -->
            <feature>
              <rects>
                <_>
                  21 2 3 4 -1.</_>
                <_>
                  21 2 3 2 2.</_></rects>
              <tilted>1</tilted></feature>
            <threshold>-3.7231840542517602e-004</threshold>
            <left_val>0.1279360949993134</left_val>
            <right_val>-0.9757844209671021</right_val></_></_>
        <_>
          <!-- tree 12 -->
          <_>
            <!-- root node -->
            <feature>
              <rects>
                <_>
                  14 20 4 2 -1.</_>
                <_>
                  16 20 2 2 2.</_></rects>
              <tilted>0</tilted></feature>
            <threshold>-2.2870409884490073e-004</threshold>
            <left_val>0.2865447998046875</left_val>
            <right_node>1</right_node></_>
          <_>
            <!-- node 1 -->
            <feature>
              <rects>
                <_>
                  16 2 6 2 -1.</_>
                <_>
                  18 4 2 2 3.</_></rects>
              <tilted>1</tilted></feature>
            <threshold>-1.1601019650697708e-003</threshold>
            <left_val>-0.0665203109383583</left_val>
            <right_val>-0.9141805171966553</right_val></_></_>
        <_>
          <!-- tree 13 -->
          <_>
            <!-- root node -->
            <feature>
              <rects>
                <_>
                  0 20 14 1 -1.</_>
                <_>
                  7 20 7 1 2.</_></rects>
              <tilted>0</tilted></feature>
            <threshold>8.4705315530300140e-003</threshold>
            <left_node>1</left_node>
            <right_val>0.4786618053913117</right_val></_>
          <_>
            <!-- node 1 -->
            <feature>
              <rects>
                <_>
                  14 0 3 3 -1.</_>
                <_>
                  15 0 1 3 3.</_></rects>
              <tilted>0</tilted></feature>
            <threshold>-2.5803919415920973e-003</threshold>
            <left_val>-0.8585004210472107</left_val>
            <right_val>0.0162605401128531</right_val></_></_></trees>
      <stage_threshold>-2.1023550033569336</stage_threshold>
      <parent>0</parent>
      <next>-1</next></_>
    <_>
      <!-- stage 2 -->
      <trees>
        <_>
          <!-- tree 0 -->
          <_>
            <!-- root node -->
            <feature>
              <rects>
                <_>
                  0 0 24 5 -1.</_>
                <_>
                  6 0 12 5 2.</_></rects>
              <tilted>0</tilted></feature>
            <threshold>0.1130985021591187</threshold>
            <left_node>1</left_node>
            <right_val>0.7568963766098023</right_val></_>
          <_>
            <!-- node 1 -->
            <feature>
              <rects>
                <_>
                  6 5 12 4 -1.</_>
                <_>
                  10 5 4 4 3.</_></rects>
              <tilted>0</tilted></feature>
            <threshold>0.0349715389311314</threshold>
            <left_val>-0.6798709034919739</left_val>
            <right_val>0.2423430979251862</right_val></_></_>
        <_>
          <!-- tree 1 -->
          <_>
            <!-- root node -->
            <feature>
              <rects>
                <_>
                  4 6 6 6 -1.</_>
                <_>
                  4 9 6 3 2.</_></rects>
              <tilted>0</tilted></feature>
            <threshold>8.3957929164171219e-003</threshold>
            <left_val>-0.6700050234794617</left_val>
            <right_node>1</right_node></_>
          <_>
            <!-- node 1 -->
            <feature>
              <rects>
                <_>
                  11 3 8 12 -1.</_>
                <_>
                  11 3 4 6 2.</_>
                <_>
                  15 9 4 6 2.</_></rects>
              <tilted>0</tilted></feature>
            <threshold>0.0161792095750570</threshold>
            <left_val>-0.1932917982339859</left_val>
            <right_val>0.6530740857124329</right_val></_></_>
        <_>
          <!-- tree 2 -->
          <_>
            <!-- root node -->
            <feature>
              <rects>
                <_>
                  16 9 8 11 -1.</_>
                <_>
                  20 9 4 11 2.</_></rects>
              <tilted>0</tilted></feature>
            <threshold>-0.0508518107235432</threshold>
            <left_val>0.5482783913612366</left_val>
            <right_node>1</right_node></_>
          <_>
            <!-- node 1 -->
            <feature>
              <rects>
                <_>
                  16 14 8 10 -1.</_>
                <_>
                  20 14 4 10 2.</_></rects>
              <tilted>0</tilted></feature>
            <threshold>0.0473150685429573</threshold>
            <left_val>-0.4335652887821198</left_val>
            <right_val>0.4965321123600006</right_val></_></_>
        <_>
          <!-- tree 3 -->
          <_>
            <!-- root node -->
            <feature>
              <rects>
                <_>
                  11 7 7 4 -1.</_>
                <_>
                  11 9 7 2 2.</_></rects>
              <tilted>0</tilted></feature>
            <threshold>1.5981280012056231e-003</threshold>
            <left_val>-0.6430534720420837</left_val>
            <right_node>1</right_node></_>
          <_>
            <!-- node 1 -->
            <feature>
              <rects>
                <_>
                  11 10 4 12 -1.</_>
                <_>
                  11 13 4 6 2.</_></rects>
              <tilted>0</tilted></feature>
            <threshold>-6.5830798121169209e-004</threshold>
            <left_val>0.3834868073463440</left_val>
            <right_val>-0.5145424008369446</right_val></_></_>
        <_>
          <!-- tree 4 -->
          <_>
            <!-- root node -->
            <feature>
              <rects>
                <_>
                  0 1 6 19 -1.</_>
                <_>
                  3 1 3 19 2.</_></rects>
              <tilted>0</tilted></feature>
            <threshold>0.0659603625535965</threshold>
            <left_node>1</left_node>
            <right_val>0.6183016896247864</right_val></_>
          <_>
            <!-- node 1 -->
            <feature>
              <rects>
                <_>
                  0 4 6 20 -1.</_>
                <_>
                  3 4 3 20 2.</_></rects>
              <tilted>0</tilted></feature>
            <threshold>-0.0579718612134457</threshold>
            <left_val>0.5597760081291199</left_val>
            <right_val>-0.2841727137565613</right_val></_></_>
        <_>
          <!-- tree 5 -->
          <_>
            <!-- root node -->
            <feature>
              <rects>
                <_>
                  7 0 7 6 -1.</_>
                <_>
                  5 2 7 2 3.</_></rects>
              <tilted>1</tilted></feature>
            <threshold>-9.7145262407138944e-004</threshold>
            <left_node>1</left_node>
            <right_val>-0.5583317279815674</right_val></_>
          <_>
            <!-- node 1 -->
            <feature>
              <rects>
                <_>
                  18 14 2 3 -1.</_>
                <_>
                  18 15 2 1 3.</_></rects>
              <tilted>0</tilted></feature>
            <threshold>1.5775059582665563e-003</threshold>
            <left_val>0.3006998896598816</left_val>
            <right_val>-0.6451994180679321</right_val></_></_>
        <_>
          <!-- tree 6 -->
          <_>
            <!-- root node -->
            <feature>
              <rects>
                <_>
                  5 16 6 6 -1.</_>
                <_>
                  5 16 3 3 2.</_>
                <_>
                  8 19 3 3 2.</_></rects>
              <tilted>0</tilted></feature>
            <threshold>2.9445809777826071e-003</threshold>
            <left_node>1</left_node>
            <right_val>0.3181619048118591</right_val></_>
          <_>
            <!-- node 1 -->
            <feature>
              <rects>
                <_>
                  13 0 10 8 -1.</_>
                <_>
                  13 0 5 4 2.</_>
                <_>
                  18 4 5 4 2.</_></rects>
              <tilted>0</tilted></feature>
            <threshold>0.0229290500283241</threshold>
            <left_val>-0.4416812062263489</left_val>
            <right_val>0.2349078953266144</right_val></_></_>
        <_>
          <!-- tree 7 -->
          <_>
            <!-- root node -->
            <feature>
              <rects>
                <_>
                  7 7 16 2 -1.</_>
                <_>
                  7 8 16 1 2.</_></rects>
              <tilted>0</tilted></feature>
            <threshold>1.4909969650034327e-005</threshold>
            <left_node>1</left_node>
            <right_val>0.1526391059160233</right_val></_>
          <_>
            <!-- node 1 -->
            <feature>
              <rects>
                <_>
                  8 9 11 4 -1.</_>
                <_>
                  8 11 11 2 2.</_></rects>
              <tilted>0</tilted></feature>
            <threshold>3.7732101045548916e-003</threshold>
            <left_val>-0.7811862230300903</left_val>
            <right_val>-0.0328541807830334</right_val></_></_>
        <_>
          <!-- tree 8 -->
          <_>
            <!-- root node -->
            <feature>
              <rects>
                <_>
                  17 12 2 2 -1.</_>
                <_>
                  17 13 2 1 2.</_></rects>
              <tilted>0</tilted></feature>
            <threshold>-1.2306069947953802e-005</threshold>
            <left_node>1</left_node>
            <right_val>-0.4428453147411346</right_val></_>
          <_>
            <!-- node 1 -->
            <feature>
              <rects>
                <_>
                  17 12 3 3 -1.</_>
                <_>
                  17 13 3 1 3.</_></rects>
              <tilted>0</tilted></feature>
            <threshold>-2.2340589202940464e-003</threshold>
            <left_val>-0.5575109720230103</left_val>
            <right_val>0.3387381136417389</right_val></_></_>
        <_>
          <!-- tree 9 -->
          <_>
            <!-- root node -->
            <feature>
              <rects>
                <_>
                  3 0 6 1 -1.</_>
                <_>
                  6 0 3 1 2.</_></rects>
              <tilted>0</tilted></feature>
            <threshold>2.0244790357537568e-004</threshold>
            <left_node>1</left_node>
            <right_val>0.2526224851608276</right_val></_>
          <_>
            <!-- node 1 -->
            <feature>
              <rects>
                <_>
                  18 13 3 4 -1.</_>
                <_>
                  18 14 3 2 2.</_></rects>
              <tilted>0</tilted></feature>
            <threshold>-2.9876551125198603e-003</threshold>
            <left_val>-0.8175067901611328</left_val>
            <right_val>-0.0530991815030575</right_val></_></_>
        <_>
          <!-- tree 10 -->
          <_>
            <!-- root node -->
            <feature>
              <rects>
                <_>
                  11 5 8 13 -1.</_>
                <_>
                  13 5 4 13 2.</_></rects>
              <tilted>0</tilted></feature>
            <threshold>-7.2622890584170818e-003</threshold>
            <left_val>0.2282005995512009</left_val>
            <right_node>1</right_node></_>
          <_>
            <!-- node 1 -->
            <feature>
              <rects>
                <_>
                  10 13 12 2 -1.</_>
                <_>
                  13 13 6 2 2.</_></rects>
              <tilted>0</tilted></feature>
            <threshold>4.6625612303614616e-003</threshold>
            <left_val>-0.7017771005630493</left_val>
            <right_val>0.0379784181714058</right_val></_></_>
        <_>
          <!-- tree 11 -->
          <_>
            <!-- root node -->
            <feature>
              <rects>
                <_>
                  15 5 9 8 -1.</_>
                <_>
                  15 9 9 4 2.</_></rects>
              <tilted>0</tilted></feature>
            <threshold>2.1022879518568516e-003</threshold>
            <left_node>1</left_node>
            <right_val>0.1064276993274689</right_val></_>
          <_>
            <!-- node 1 -->
            <feature>
              <rects>
                <_>
                  10 16 6 3 -1.</_>
                <_>
                  10 17 6 1 3.</_></rects>
              <tilted>0</tilted></feature>
            <threshold>-9.1321486979722977e-003</threshold>
            <left_val>0.4468980133533478</left_val>
            <right_val>-0.4778446853160858</right_val></_></_>
        <_>
          <!-- tree 12 -->
          <_>
            <!-- root node -->
            <feature>
              <rects>
                <_>
                  6 12 3 6 -1.</_>
                <_>
                  6 15 3 3 2.</_></rects>
              <tilted>0</tilted></feature>
            <threshold>-5.2854971727356315e-005</threshold>
            <left_node>1</left_node>
            <right_val>-0.4780276119709015</right_val></_>
          <_>
            <!-- node 1 -->
            <feature>
              <rects>
                <_>
                  3 13 3 3 -1.</_>
                <_>
                  3 14 3 1 3.</_></rects>
              <tilted>0</tilted></feature>
            <threshold>1.6468550311401486e-003</threshold>
            <left_val>0.2854981124401093</left_val>
            <right_val>-0.6534361839294434</right_val></_></_>
        <_>
          <!-- tree 13 -->
          <_>
            <!-- root node -->
            <feature>
              <rects>
                <_>
                  5 1 6 10 -1.</_>
                <_>
                  7 1 2 10 3.</_></rects>
              <tilted>0</tilted></feature>
            <threshold>-1.9426659491728060e-005</threshold>
            <left_val>0.2377075999975205</left_val>
            <right_node>1</right_node></_>
          <_>
            <!-- node 1 -->
            <feature>
              <rects>
                <_>
                  3 9 4 4 -1.</_>
                <_>
                  5 9 2 4 2.</_></rects>
              <tilted>0</tilted></feature>
            <threshold>3.0009250622242689e-003</threshold>
            <left_val>-0.7588291168212891</left_val>
            <right_val>0.1859821975231171</right_val></_></_>
        <_>
          <!-- tree 14 -->
          <_>
            <!-- root node -->
            <feature>
              <rects>
                <_>
                  0 4 22 20 -1.</_>
                <_>
                  11 4 11 20 2.</_></rects>
              <tilted>0</tilted></feature>
            <threshold>-0.2820622920989990</threshold>
            <left_val>0.5480486750602722</left_val>
            <right_node>1</right_node></_>
          <_>
            <!-- node 1 -->
            <feature>
              <rects>
                <_>
                  3 0 18 23 -1.</_>
                <_>
                  12 0 9 23 2.</_></rects>
              <tilted>0</tilted></feature>
            <threshold>0.2541953921318054</threshold>
            <left_val>-0.3840135931968689</left_val>
            <right_val>0.5206258296966553</right_val></_></_></trees>
      <stage_threshold>-2.4619998931884766</stage_threshold>
      <parent>1</parent>
      <next>-1</next></_>
    <_>
      <!-- stage 3 -->
      <trees>
        <_>
          <!-- tree 0 -->
          <_>
            <!-- root node -->
            <feature>
              <rects>
                <_>
                  0 1 24 3 -1.</_>
                <_>
                  6 1 12 3 2.</_></rects>
              <tilted>0</tilted></feature>
            <threshold>0.0656585395336151</threshold>
            <left_node>1</left_node>
            <right_val>0.6592314243316650</right_val></_>
          <_>
            <!-- node 1 -->
            <feature>
              <rects>
                <_>
                  4 6 17 9 -1.</_>
                <_>
                  4 9 17 3 3.</_></rects>
              <tilted>0</tilted></feature>
            <threshold>0.0665123537182808</threshold>
            <left_val>-0.6997079849243164</left_val>
            <right_val>-0.0171939209103584</right_val></_></_>
        <_>
          <!-- tree 1 -->
          <_>
            <!-- root node -->
            <feature>
              <rects>
                <_>
                  14 6 6 12 -1.</_>
                <_>
                  14 9 6 6 2.</_></rects>
              <tilted>0</tilted></feature>
            <threshold>9.3777757138013840e-003</threshold>
            <left_val>-0.7371844053268433</left_val>
            <right_node>1</right_node></_>
          <_>
            <!-- node 1 -->
            <feature>
              <rects>
                <_>
                  6 3 12 6 -1.</_>
                <_>
                  9 3 6 6 2.</_></rects>
              <tilted>0</tilted></feature>
            <threshold>0.0116948997601867</threshold>
            <left_val>-0.5436136126518250</left_val>
            <right_val>0.4541752040386200</right_val></_></_>
        <_>
          <!-- tree 2 -->
          <_>
            <!-- root node -->
            <feature>
              <rects>
                <_>
                  9 6 3 4 -1.</_>
                <_>
                  9 6 3 2 2.</_></rects>
              <tilted>1</tilted></feature>
            <threshold>-1.0339959990233183e-003</threshold>
            <left_node>1</left_node>
            <right_val>-0.6449124217033386</right_val></_>
          <_>
            <!-- node 1 -->
            <feature>
              <rects>
                <_>
                  0 1 24 21 -1.</_>
                <_>
                  6 1 12 21 2.</_></rects>
              <tilted>0</tilted></feature>
            <threshold>0.2666943967342377</threshold>
            <left_val>-0.0378651097416878</left_val>
            <right_val>0.7523579001426697</right_val></_></_>
        <_>
          <!-- tree 3 -->
          <_>
            <!-- root node -->
            <feature>
              <rects>
                <_>
                  14 1 8 4 -1.</_>
                <_>
                  16 3 4 4 2.</_></rects>
              <tilted>1</tilted></feature>
            <threshold>-4.3091098777949810e-003</threshold>
            <left_node>1</left_node>
            <right_val>-0.5491766929626465</right_val></_>
          <_>
            <!-- node 1 -->
            <feature>
              <rects>
                <_>
                  10 19 3 2 -1.</_>
                <_>
                  11 19 1 2 3.</_></rects>
              <tilted>0</tilted></feature>
            <threshold>1.9847340881824493e-003</threshold>
            <left_val>0.3445014953613281</left_val>
            <right_val>-0.7133778929710388</right_val></_></_>
        <_>
          <!-- tree 4 -->
          <_>
            <!-- root node -->
            <feature>
              <rects>
                <_>
                  10 18 4 6 -1.</_>
                <_>
                  10 20 4 2 3.</_></rects>
              <tilted>0</tilted></feature>
            <threshold>3.4042499028146267e-003</threshold>
            <left_node>1</left_node>
            <right_val>0.2654012143611908</right_val></_>
          <_>
            <!-- node 1 -->
            <feature>
              <rects>
                <_>
                  10 19 3 3 -1.</_>
                <_>
                  11 19 1 3 3.</_></rects>
              <tilted>0</tilted></feature>
            <threshold>-2.5964139495044947e-003</threshold>
            <left_val>-0.8619542121887207</left_val>
            <right_val>-0.1732850968837738</right_val></_></_>
        <_>
          <!-- tree 5 -->
          <_>
            <!-- root node -->
            <feature>
              <rects>
                <_>
                  6 11 6 1 -1.</_>
                <_>
                  6 11 3 1 2.</_></rects>
              <tilted>1</tilted></feature>
            <threshold>6.4293271861970425e-004</threshold>
            <left_node>1</left_node>
            <right_val>0.1317259967327118</right_val></_>
          <_>
            <!-- node 1 -->
            <feature>
              <rects>
                <_>
                  0 17 24 7 -1.</_>
                <_>
                  6 17 12 7 2.</_></rects>
              <tilted>0</tilted></feature>
            <threshold>-0.1220851987600327</threshold>
            <left_val>0.6441535949707031</left_val>
            <right_val>-0.4658784866333008</right_val></_></_>
        <_>
          <!-- tree 6 -->
          <_>
            <!-- root node -->
            <feature>
              <rects>
                <_>
                  18 0 6 21 -1.</_>
                <_>
                  21 0 3 21 2.</_></rects>
              <tilted>0</tilted></feature>
            <threshold>-0.0581265985965729</threshold>
            <left_val>0.4079728126525879</left_val>
            <right_node>1</right_node></_>
          <_>
            <!-- node 1 -->
            <feature>
              <rects>
                <_>
                  18 8 6 16 -1.</_>
                <_>
                  21 8 3 16 2.</_></rects>
              <tilted>0</tilted></feature>
            <threshold>0.0670025423169136</threshold>
            <left_val>-0.3372617959976196</left_val>
            <right_val>0.5552145838737488</right_val></_></_>
        <_>
          <!-- tree 7 -->
          <_>
            <!-- root node -->
            <feature>
              <rects>
                <_>
                  20 1 4 8 -1.</_>
                <_>
                  21 2 2 8 2.</_></rects>
              <tilted>1</tilted></feature>
            <threshold>-3.1464389758184552e-004</threshold>
            <left_node>1</left_node>
            <right_val>-0.4513061940670013</right_val></_>
          <_>
            <!-- node 1 -->
            <feature>
              <rects>
                <_>
                  9 0 6 2 -1.</_>
                <_>
                  11 0 2 2 3.</_></rects>
              <tilted>0</tilted></feature>
            <threshold>6.5439599566161633e-003</threshold>
            <left_val>0.3132638931274414</left_val>
            <right_val>-0.5794581770896912</right_val></_></_>
        <_>
          <!-- tree 8 -->
          <_>
            <!-- root node -->
            <feature>
              <rects>
                <_>
                  8 14 8 3 -1.</_>
                <_>
                  8 15 8 1 3.</_></rects>
              <tilted>0</tilted></feature>
            <threshold>4.7585237771272659e-003</threshold>
            <left_node>1</left_node>
            <right_val>0.4567353129386902</right_val></_>
          <_>
            <!-- node 1 -->
            <feature>
              <rects>
                <_>
                  11 0 3 5 -1.</_>
                <_>
                  12 0 1 5 3.</_></rects>
              <tilted>0</tilted></feature>
            <threshold>-3.7835140246897936e-003</threshold>
            <left_val>-0.7943258285522461</left_val>
            <right_val>0.0134741403162479</right_val></_></_>
        <_>
          <!-- tree 9 -->
          <_>
            <!-- root node -->
            <feature>
              <rects>
                <_>
                  0 5 15 8 -1.</_>
                <_>
                  0 9 15 4 2.</_></rects>
              <tilted>0</tilted></feature>
            <threshold>7.7718612737953663e-004</threshold>
            <left_node>1</left_node>
            <right_val>0.0713834464550018</right_val></_>
          <_>
            <!-- node 1 -->
            <feature>
              <rects>
                <_>
                  4 6 20 8 -1.</_>
                <_>
                  4 8 20 4 2.</_></rects>
              <tilted>0</tilted></feature>
            <threshold>-0.0637912824749947</threshold>
            <left_val>0.7907401919364929</left_val>
            <right_val>-0.5470417737960815</right_val></_></_>
        <_>
          <!-- tree 10 -->
          <_>
            <!-- root node -->
            <feature>
              <rects>
                <_>
                  4 0 6 4 -1.</_>
                <_>
                  3 1 6 2 2.</_></rects>
              <tilted>1</tilted></feature>
            <threshold>-1.5087370229593944e-005</threshold>
            <left_node>1</left_node>
            <right_val>-0.4820204973220825</right_val></_>
          <_>
            <!-- node 1 -->
            <feature>
              <rects>
                <_>
                  10 0 3 3 -1.</_>
                <_>
                  11 0 1 3 3.</_></rects>
              <tilted>0</tilted></feature>
            <threshold>-2.6127959135919809e-003</threshold>
            <left_val>-0.6634051203727722</left_val>
            <right_val>0.2615594863891602</right_val></_></_>
        <_>
          <!-- tree 11 -->
          <_>
            <!-- root node -->
            <feature>
              <rects>
                <_>
                  1 9 18 14 -1.</_>
                <_>
                  10 9 9 14 2.</_></rects>
              <tilted>0</tilted></feature>
            <threshold>0.1907345056533814</threshold>
            <left_node>1</left_node>
            <right_val>0.6210089921951294</right_val></_>
          <_>
            <!-- node 1 -->
            <feature>
              <rects>
                <_>
                  3 0 20 23 -1.</_>
                <_>
                  13 0 10 23 2.</_></rects>
              <tilted>0</tilted></feature>
            <threshold>-0.3186708986759186</threshold>
            <left_val>0.5423638820648193</left_val>
            <right_val>-0.2394468039274216</right_val></_></_>
        <_>
          <!-- tree 12 -->
          <_>
            <!-- root node -->
            <feature>
              <rects>
                <_>
                  6 10 5 8 -1.</_>
                <_>
                  6 14 5 4 2.</_></rects>
              <tilted>0</tilted></feature>
            <threshold>-1.5580839317408390e-005</threshold>
            <left_val>0.1152400970458984</left_val>
            <right_node>1</right_node></_>
          <_>
            <!-- node 1 -->
            <feature>
              <rects>
                <_>
                  13 17 10 4 -1.</_>
                <_>
                  13 17 5 2 2.</_>
                <_>
                  18 19 5 2 2.</_></rects>
              <tilted>0</tilted></feature>
            <threshold>-3.4858519211411476e-003</threshold>
            <left_val>0.0594502203166485</left_val>
            <right_val>-0.8225399255752564</right_val></_></_>
        <_>
          <!-- tree 13 -->
          <_>
            <!-- root node -->
            <feature>
              <rects>
                <_>
                  9 4 6 12 -1.</_>
                <_>
                  11 4 2 12 3.</_></rects>
              <tilted>0</tilted></feature>
            <threshold>0.0111786201596260</threshold>
            <left_node>1</left_node>
            <right_val>0.2739233076572418</right_val></_>
          <_>
            <!-- node 1 -->
            <feature>
              <rects>
                <_>
                  10 8 4 4 -1.</_>
                <_>
                  11 8 2 4 2.</_></rects>
              <tilted>0</tilted></feature>
            <threshold>-1.1106439633294940e-003</threshold>
            <left_val>0.0456906892359257</left_val>
            <right_val>-0.5304936766624451</right_val></_></_>
        <_>
          <!-- tree 14 -->
          <_>
            <!-- root node -->
            <feature>
              <rects>
                <_>
                  18 14 3 5 -1.</_>
                <_>
                  19 15 1 5 3.</_></rects>
              <tilted>1</tilted></feature>
            <threshold>1.4135360252112150e-003</threshold>
            <left_node>1</left_node>
            <right_val>0.2280758023262024</right_val></_>
          <_>
            <!-- node 1 -->
            <feature>
              <rects>
                <_>
                  10 16 4 3 -1.</_>
                <_>
                  10 17 4 1 3.</_></rects>
              <tilted>0</tilted></feature>
            <threshold>5.5446932092308998e-003</threshold>
            <left_val>-0.3534314930438995</left_val>
            <right_val>0.5416567921638489</right_val></_></_>
        <_>
          <!-- tree 15 -->
          <_>
            <!-- root node -->
            <feature>
              <rects>
                <_>
                  9 15 5 3 -1.</_>
                <_>
                  9 16 5 1 3.</_></rects>
              <tilted>0</tilted></feature>
            <threshold>1.8980599706992507e-003</threshold>
            <left_node>1</left_node>
            <right_val>0.3411389887332916</right_val></_>
          <_>
            <!-- node 1 -->
            <feature>
              <rects>
                <_>
                  8 15 8 3 -1.</_>
                <_>
                  8 16 8 1 3.</_></rects>
              <tilted>0</tilted></feature>
            <threshold>-9.7765950486063957e-003</threshold>
            <left_val>0.3249855041503906</left_val>
            <right_val>-0.3475284874439240</right_val></_></_>
        <_>
          <!-- tree 16 -->
          <_>
            <!-- root node -->
            <feature>
              <rects>
                <_>
                  10 8 7 2 -1.</_>
                <_>
                  10 9 7 1 2.</_></rects>
              <tilted>0</tilted></feature>
            <threshold>1.2939590305904858e-005</threshold>
            <left_node>1</left_node>
            <right_val>0.1041608974337578</right_val></_>
          <_>
            <!-- node 1 -->
            <feature>
              <rects>
                <_>
                  15 3 1 6 -1.</_>
                <_>
                  15 6 1 3 2.</_></rects>
              <tilted>0</tilted></feature>
            <threshold>1.7784490482881665e-003</threshold>
            <left_val>-0.5588911175727844</left_val>
            <right_val>0.2217340022325516</right_val></_></_>
        <_>
          <!-- tree 17 -->
          <_>
            <!-- root node -->
            <feature>
              <rects>
                <_>
                  5 4 10 14 -1.</_>
                <_>
                  5 4 5 7 2.</_>
                <_>
                  10 11 5 7 2.</_></rects>
              <tilted>0</tilted></feature>
            <threshold>-5.1707122474908829e-004</threshold>
            <left_val>0.1161646023392677</left_val>
            <right_node>1</right_node></_>
          <_>
            <!-- node 1 -->
            <feature>
              <rects>
                <_>
                  4 9 9 9 -1.</_>
                <_>
                  7 12 3 3 9.</_></rects>
              <tilted>0</tilted></feature>
            <threshold>-0.0154656404629350</threshold>
            <left_val>7.8297099098563194e-003</left_val>
            <right_val>-0.8318011760711670</right_val></_></_></trees>
      <stage_threshold>-2.2930719852447510</stage_threshold>
      <parent>2</parent>
      <next>-1</next></_>
    <_>
      <!-- stage 4 -->
      <trees>
        <_>
          <!-- tree 0 -->
          <_>
            <!-- root node -->
            <feature>
              <rects>
                <_>
                  7 5 4 6 -1.</_>
                <_>
                  5 7 4 2 3.</_></rects>
              <tilted>1</tilted></feature>
            <threshold>0.0162483006715775</threshold>
            <left_val>-0.5200353860855103</left_val>
            <right_node>1</right_node></_>
          <_>
            <!-- node 1 -->
            <feature>
              <rects>
                <_>
                  0 0 24 11 -1.</_>
                <_>
                  8 0 8 11 3.</_></rects>
              <tilted>0</tilted></feature>
            <threshold>0.1164019033312798</threshold>
            <left_val>-0.3497996032238007</left_val>
            <right_val>0.7266954779624939</right_val></_></_>
        <_>
          <!-- tree 1 -->
          <_>
            <!-- root node -->
            <feature>
              <rects>
                <_>
                  15 3 6 4 -1.</_>
                <_>
                  17 5 2 4 3.</_></rects>
              <tilted>1</tilted></feature>
            <threshold>-0.0106479497626424</threshold>
            <left_node>1</left_node>
            <right_val>-0.5484580993652344</right_val></_>
          <_>
            <!-- node 1 -->
            <feature>
              <rects>
                <_>
                  7 3 6 7 -1.</_>
                <_>
                  10 3 3 7 2.</_></rects>
              <tilted>0</tilted></feature>
            <threshold>8.0608138814568520e-003</threshold>
            <left_val>-0.2769221067428589</left_val>
            <right_val>0.5529131293296814</right_val></_></_>
        <_>
          <!-- tree 2 -->
          <_>
            <!-- root node -->
            <feature>
              <rects>
                <_>
                  12 17 8 4 -1.</_>
                <_>
                  12 17 4 2 2.</_>
                <_>
                  16 19 4 2 2.</_></rects>
              <tilted>0</tilted></feature>
            <threshold>-4.0193041786551476e-003</threshold>
            <left_node>1</left_node>
            <right_val>-0.3253498971462250</right_val></_>
          <_>
            <!-- node 1 -->
            <feature>
              <rects>
                <_>
                  19 17 2 4 -1.</_>
                <_>
                  18 18 2 2 2.</_></rects>
              <tilted>1</tilted></feature>
            <threshold>-3.5342769697308540e-003</threshold>
            <left_val>-0.2830038964748383</left_val>
            <right_val>0.5678216218948364</right_val></_></_>
        <_>
          <!-- tree 3 -->
          <_>
            <!-- root node -->
            <feature>
              <rects>
                <_>
                  0 2 12 6 -1.</_>
                <_>
                  0 2 6 3 2.</_>
                <_>
                  6 5 6 3 2.</_></rects>
              <tilted>0</tilted></feature>
            <threshold>-7.5105549767613411e-003</threshold>
            <left_node>1</left_node>
            <right_val>-0.3998613059520721</right_val></_>
          <_>
            <!-- node 1 -->
            <feature>
              <rects>
                <_>
                  0 5 16 8 -1.</_>
                <_>
                  0 9 16 4 2.</_></rects>
              <tilted>0</tilted></feature>
            <threshold>9.1664586216211319e-003</threshold>
            <left_val>-0.5068132877349854</left_val>
            <right_val>0.4176875948905945</right_val></_></_>
        <_>
          <!-- tree 4 -->
          <_>
            <!-- root node -->
            <feature>
              <rects>
                <_>
                  14 10 5 8 -1.</_>
                <_>
                  14 14 5 4 2.</_></rects>
              <tilted>0</tilted></feature>
            <threshold>-1.0614549973979592e-003</threshold>
            <left_node>1</left_node>
            <right_val>-0.4670018851757050</right_val></_>
          <_>
            <!-- node 1 -->
            <feature>
              <rects>
                <_>
                  3 10 18 8 -1.</_>
                <_>
                  3 10 9 4 2.</_>
                <_>
                  12 14 9 4 2.</_></rects>
              <tilted>0</tilted></feature>
            <threshold>-0.0403727591037750</threshold>
            <left_val>-0.5160675048828125</left_val>
            <right_val>0.3166818916797638</right_val></_></_>
        <_>
          <!-- tree 5 -->
          <_>
            <!-- root node -->
            <feature>
              <rects>
                <_>
                  5 14 6 4 -1.</_>
                <_>
                  5 14 6 2 2.</_></rects>
              <tilted>1</tilted></feature>
            <threshold>0.0398132987320423</threshold>
            <left_node>1</left_node>
            <right_val>0.6232401132583618</right_val></_>
          <_>
            <!-- node 1 -->
            <feature>
              <rects>
                <_>
                  1 15 4 2 -1.</_>
                <_>
                  1 16 4 1 2.</_></rects>
              <tilted>0</tilted></feature>
            <threshold>-1.9823159091174603e-003</threshold>
            <left_val>-0.6181743741035461</left_val>
            <right_val>0.0251114107668400</right_val></_></_>
        <_>
          <!-- tree 6 -->
          <_>
            <!-- root node -->
            <feature>
              <rects>
                <_>
                  14 0 8 8 -1.</_>
                <_>
                  14 0 4 4 2.</_>
                <_>
                  18 4 4 4 2.</_></rects>
              <tilted>0</tilted></feature>
            <threshold>7.4249161407351494e-003</threshold>
            <left_node>1</left_node>
            <right_val>0.1777175962924957</right_val></_>
          <_>
            <!-- node 1 -->
            <feature>
              <rects>
                <_>
                  16 12 6 6 -1.</_>
                <_>
                  19 12 3 6 2.</_></rects>
              <tilted>0</tilted></feature>
            <threshold>-0.0295196492224932</threshold>
            <left_val>0.3634017109870911</left_val>
            <right_val>-0.3983244895935059</right_val></_></_>
        <_>
          <!-- tree 7 -->
          <_>
            <!-- root node -->
            <feature>
              <rects>
                <_>
                  10 12 4 3 -1.</_>
                <_>
                  10 13 4 1 3.</_></rects>
              <tilted>0</tilted></feature>
            <threshold>-2.3029940202832222e-003</threshold>
            <left_val>0.3179096877574921</left_val>
            <right_node>1</right_node></_>
          <_>
            <!-- node 1 -->
            <feature>
              <rects>
                <_>
                  11 13 2 4 -1.</_>
                <_>
                  11 14 2 2 2.</_></rects>
              <tilted>0</tilted></feature>
            <threshold>-1.1639869771897793e-003</threshold>
            <left_val>0.0996036008000374</left_val>
            <right_val>-0.4230732023715973</right_val></_></_>
        <_>
          <!-- tree 8 -->
          <_>
            <!-- root node -->
            <feature>
              <rects>
                <_>
                  0 14 5 3 -1.</_>
                <_>
                  0 15 5 1 3.</_></rects>
              <tilted>0</tilted></feature>
            <threshold>-3.7194299511611462e-003</threshold>
            <left_val>-0.6018961071968079</left_val>
            <right_node>1</right_node></_>
          <_>
            <!-- node 1 -->
            <feature>
              <rects>
                <_>
                  2 14 5 4 -1.</_>
                <_>
                  2 15 5 2 2.</_></rects>
              <tilted>0</tilted></feature>
            <threshold>4.0406580083072186e-003</threshold>
            <left_val>0.1976255029439926</left_val>
            <right_val>-0.5677483081817627</right_val></_></_>
        <_>
          <!-- tree 9 -->
          <_>
            <!-- root node -->
            <feature>
              <rects>
                <_>
                  11 19 3 3 -1.</_>
                <_>
                  12 19 1 3 3.</_></rects>
              <tilted>0</tilted></feature>
            <threshold>2.3384990636259317e-003</threshold>
            <left_node>1</left_node>
            <right_val>-0.6143022179603577</right_val></_>
          <_>
            <!-- node 1 -->
            <feature>
              <rects>
                <_>
                  11 19 3 5 -1.</_>
                <_>
                  12 19 1 5 3.</_></rects>
              <tilted>0</tilted></feature>
            <threshold>-3.9372937753796577e-003</threshold>
            <left_val>-0.6207190752029419</left_val>
            <right_val>0.2064010053873062</right_val></_></_>
        <_>
          <!-- tree 10 -->
          <_>
            <!-- root node -->
            <feature>
              <rects>
                <_>
                  9 15 6 3 -1.</_>
                <_>
                  9 16 6 1 3.</_></rects>
              <tilted>0</tilted></feature>
            <threshold>-8.1741232424974442e-003</threshold>
            <left_val>0.5131072998046875</left_val>
            <right_node>1</right_node></_>
          <_>
            <!-- node 1 -->
            <feature>
              <rects>
                <_>
                  8 16 6 3 -1.</_>
                <_>
                  8 17 6 1 3.</_></rects>
              <tilted>0</tilted></feature>
            <threshold>-4.5348829589784145e-003</threshold>
            <left_val>0.3130765855312347</left_val>
            <right_val>-0.3257262110710144</right_val></_></_>
        <_>
          <!-- tree 11 -->
          <_>
            <!-- root node -->
            <feature>
              <rects>
                <_>
                  18 14 4 3 -1.</_>
                <_>
                  18 15 4 1 3.</_></rects>
              <tilted>0</tilted></feature>
            <threshold>2.6658289134502411e-003</threshold>
            <left_node>1</left_node>
            <right_val>-0.6418166160583496</right_val></_>
          <_>
            <!-- node 1 -->
            <feature>
              <rects>
                <_>
                  17 14 4 3 -1.</_>
                <_>
                  17 15 4 1 3.</_></rects>
              <tilted>0</tilted></feature>
            <threshold>-2.5351210497319698e-003</threshold>
            <left_val>-0.4317569136619568</left_val>
            <right_val>0.2460834980010986</right_val></_></_>
        <_>
          <!-- tree 12 -->
          <_>
            <!-- root node -->
            <feature>
              <rects>
                <_>
                  10 15 4 4 -1.</_>
                <_>
                  10 16 4 2 2.</_></rects>
              <tilted>0</tilted></feature>
            <threshold>4.0162461809813976e-003</threshold>
            <left_node>1</left_node>
            <right_val>0.4607203900814056</right_val></_>
          <_>
            <!-- node 1 -->
            <feature>
              <rects>
                <_>
                  0 4 24 20 -1.</_>
                <_>
                  6 4 12 20 2.</_></rects>
              <tilted>0</tilted></feature>
            <threshold>-0.3187943994998932</threshold>
            <left_val>0.6275660991668701</left_val>
            <right_val>-0.2403436005115509</right_val></_></_>
        <_>
          <!-- tree 13 -->
          <_>
            <!-- root node -->
            <feature>
              <rects>
                <_>
                  7 0 6 1 -1.</_>
                <_>
                  9 0 2 1 3.</_></rects>
              <tilted>0</tilted></feature>
            <threshold>-1.6092050354927778e-003</threshold>
            <left_val>-0.4825840890407562</left_val>
            <right_node>1</right_node></_>
          <_>
            <!-- node 1 -->
            <feature>
              <rects>
                <_>
                  8 0 4 1 -1.</_>
                <_>
                  9 0 2 1 2.</_></rects>
              <tilted>0</tilted></feature>
            <threshold>1.0294839739799500e-003</threshold>
            <left_val>0.2442509979009628</left_val>
            <right_val>-0.3998289108276367</right_val></_></_>
        <_>
          <!-- tree 14 -->
          <_>
            <!-- root node -->
            <feature>
              <rects>
                <_>
                  10 5 4 18 -1.</_>
                <_>
                  10 11 4 6 3.</_></rects>
              <tilted>0</tilted></feature>
            <threshold>0.0518895797431469</threshold>
            <left_node>1</left_node>
            <right_val>-0.5891677737236023</right_val></_>
          <_>
            <!-- node 1 -->
            <feature>
              <rects>
                <_>
                  6 6 9 18 -1.</_>
                <_>
                  6 15 9 9 2.</_></rects>
              <tilted>0</tilted></feature>
            <threshold>0.0816460102796555</threshold>
            <left_val>0.2046086043119431</left_val>
            <right_val>-0.6661561727523804</right_val></_></_>
        <_>
          <!-- tree 15 -->
          <_>
            <!-- root node -->
            <feature>
              <rects>
                <_>
                  9 4 8 18 -1.</_>
                <_>
                  9 13 8 9 2.</_></rects>
              <tilted>0</tilted></feature>
            <threshold>-0.1204226016998291</threshold>
            <left_val>-0.6472765207290649</left_val>
            <right_node>1</right_node></_>
          <_>
            <!-- node 1 -->
            <feature>
              <rects>
                <_>
                  8 19 3 1 -1.</_>
                <_>
                  9 20 1 1 3.</_></rects>
              <tilted>1</tilted></feature>
            <threshold>3.0832120683044195e-003</threshold>
            <left_val>0.1533982008695602</left_val>
            <right_val>-0.5944703221321106</right_val></_></_></trees>
      <stage_threshold>-2.0367400646209717</stage_threshold>
      <parent>3</parent>
      <next>-1</next></_>
    <_>
      <!-- stage 5 -->
      <trees>
        <_>
          <!-- tree 0 -->
          <_>
            <!-- root node -->
            <feature>
              <rects>
                <_>
                  6 3 12 6 -1.</_>
                <_>
                  10 3 4 6 3.</_></rects>
              <tilted>0</tilted></feature>
            <threshold>0.0353323481976986</threshold>
            <left_val>-0.4868305921554565</left_val>
            <right_node>1</right_node></_>
          <_>
            <!-- node 1 -->
            <feature>
              <rects>
                <_>
                  18 5 6 5 -1.</_>
                <_>
                  20 7 2 5 3.</_></rects>
              <tilted>1</tilted></feature>
            <threshold>0.0160124991089106</threshold>
            <left_val>-0.2467792034149170</left_val>
            <right_val>0.6862444877624512</right_val></_></_>
        <_>
          <!-- tree 1 -->
          <_>
            <!-- root node -->
            <feature>
              <rects>
                <_>
                  0 0 6 14 -1.</_>
                <_>
                  3 0 3 14 2.</_></rects>
              <tilted>0</tilted></feature>
            <threshold>0.0318341292440891</threshold>
            <left_val>-0.3220576941967011</left_val>
            <right_node>1</right_node></_>
          <_>
            <!-- node 1 -->
            <feature>
              <rects>
                <_>
                  6 6 1 6 -1.</_>
                <_>
                  6 9 1 3 2.</_></rects>
              <tilted>0</tilted></feature>
            <threshold>2.1286760456860065e-003</threshold>
            <left_val>-0.1943231970071793</left_val>
            <right_val>0.6792901158332825</right_val></_></_>
        <_>
          <!-- tree 2 -->
          <_>
            <!-- root node -->
            <feature>
              <rects>
                <_>
                  5 17 6 4 -1.</_>
                <_>
                  5 17 3 2 2.</_>
                <_>
                  8 19 3 2 2.</_></rects>
              <tilted>0</tilted></feature>
            <threshold>3.2246310729533434e-003</threshold>
            <left_node>1</left_node>
            <right_val>0.4419498145580292</right_val></_>
          <_>
            <!-- node 1 -->
            <feature>
              <rects>
                <_>
                  13 1 10 8 -1.</_>
                <_>
                  13 1 5 4 2.</_>
                <_>
                  18 5 5 4 2.</_></rects>
              <tilted>0</tilted></feature>
            <threshold>0.0152185000479221</threshold>
            <left_val>-0.5972229242324829</left_val>
            <right_val>0.0525778196752071</right_val></_></_>
        <_>
          <!-- tree 3 -->
          <_>
            <!-- root node -->
            <feature>
              <rects>
                <_>
                  2 1 8 8 -1.</_>
                <_>
                  2 1 4 4 2.</_>
                <_>
                  6 5 4 4 2.</_></rects>
              <tilted>0</tilted></feature>
            <threshold>-9.7140995785593987e-003</threshold>
            <left_node>1</left_node>
            <right_val>-0.3555834889411926</right_val></_>
          <_>
            <!-- node 1 -->
            <feature>
              <rects>
                <_>
                  1 4 21 6 -1.</_>
                <_>
                  1 6 21 2 3.</_></rects>
              <tilted>0</tilted></feature>
            <threshold>-0.0126900402829051</threshold>
            <left_val>0.4319497048854828</left_val>
            <right_val>-0.2640245854854584</right_val></_></_>
        <_>
          <!-- tree 4 -->
          <_>
            <!-- root node -->
            <feature>
              <rects>
                <_>
                  17 2 6 17 -1.</_>
                <_>
                  20 2 3 17 2.</_></rects>
              <tilted>0</tilted></feature>
            <threshold>-0.0519827194511890</threshold>
            <left_val>0.4378871023654938</left_val>
            <right_node>1</right_node></_>
          <_>
            <!-- node 1 -->
            <feature>
              <rects>
                <_>
                  10 5 2 5 -1.</_>
                <_>
                  11 5 1 5 2.</_></rects>
              <tilted>0</tilted></feature>
            <threshold>2.6979760732501745e-003</threshold>
            <left_val>-0.4205803871154785</left_val>
            <right_val>0.2414719015359879</right_val></_></_>
        <_>
          <!-- tree 5 -->
          <_>
            <!-- root node -->
            <feature>
              <rects>
                <_>
                  5 12 2 2 -1.</_>
                <_>
                  5 13 2 1 2.</_></rects>
              <tilted>0</tilted></feature>
            <threshold>-1.2306069947953802e-005</threshold>
            <left_node>1</left_node>
            <right_val>-0.3571304082870483</right_val></_>
          <_>
            <!-- node 1 -->
            <feature>
              <rects>
                <_>
                  2 12 6 3 -1.</_>
                <_>
                  2 13 6 1 3.</_></rects>
              <tilted>0</tilted></feature>
            <threshold>-5.0607509911060333e-003</threshold>
            <left_val>-0.6319606900215149</left_val>
            <right_val>0.3170053064823151</right_val></_></_>
        <_>
          <!-- tree 6 -->
          <_>
            <!-- root node -->
            <feature>
              <rects>
                <_>
                  7 22 9 2 -1.</_>
                <_>
                  7 23 9 1 2.</_></rects>
              <tilted>0</tilted></feature>
            <threshold>-2.1712360903620720e-003</threshold>
            <left_node>1</left_node>
            <right_val>-0.2380817979574204</right_val></_>
          <_>
            <!-- node 1 -->
            <feature>
              <rects>
                <_>
                  13 19 4 4 -1.</_>
                <_>
                  13 19 2 2 2.</_>
                <_>
                  15 21 2 2 2.</_></rects>
              <tilted>0</tilted></feature>
            <threshold>-7.6551869278773665e-004</threshold>
            <left_val>0.6166551709175110</left_val>
            <right_val>-0.0928568616509438</right_val></_></_>
        <_>
          <!-- tree 7 -->
          <_>
            <!-- root node -->
            <feature>
              <rects>
                <_>
                  13 17 6 2 -1.</_>
                <_>
                  13 17 3 1 2.</_>
                <_>
                  16 18 3 1 2.</_></rects>
              <tilted>0</tilted></feature>
            <threshold>-9.0538000222295523e-004</threshold>
            <left_val>0.3121209144592285</left_val>
            <right_node>1</right_node></_>
          <_>
            <!-- node 1 -->
            <feature>
              <rects>
                <_>
                  4 9 10 4 -1.</_>
                <_>
                  3 10 10 2 2.</_></rects>
              <tilted>1</tilted></feature>
            <threshold>-6.6960188560187817e-003</threshold>
            <left_val>0.2402175068855286</left_val>
            <right_val>-0.3876360058784485</right_val></_></_>
        <_>
          <!-- tree 8 -->
          <_>
            <!-- root node -->
            <feature>
              <rects>
                <_>
                  3 13 5 4 -1.</_>
                <_>
                  3 14 5 2 2.</_></rects>
              <tilted>0</tilted></feature>
            <threshold>-5.8283167891204357e-003</threshold>
            <left_val>-0.6682528257369995</left_val>
            <right_node>1</right_node></_>
          <_>
            <!-- node 1 -->
            <feature>
              <rects>
                <_>
                  13 9 6 4 -1.</_>
                <_>
                  13 10 6 2 2.</_></rects>
              <tilted>0</tilted></feature>
            <threshold>1.9644119311124086e-003</threshold>
            <left_val>-0.1891023963689804</left_val>
            <right_val>0.3092696964740753</right_val></_></_>
        <_>
          <!-- tree 9 -->
          <_>
            <!-- root node -->
            <feature>
              <rects>
                <_>
                  1 13 6 4 -1.</_>
                <_>
                  3 13 2 4 3.</_></rects>
              <tilted>0</tilted></feature>
            <threshold>-0.0114155802875757</threshold>
            <left_val>0.4815613031387329</left_val>
            <right_node>1</right_node></_>
          <_>
            <!-- node 1 -->
            <feature>
              <rects>
                <_>
                  5 14 6 4 -1.</_>
                <_>
                  4 15 6 2 2.</_></rects>
              <tilted>1</tilted></feature>
            <threshold>9.9359434098005295e-003</threshold>
            <left_val>-0.2582331895828247</left_val>
            <right_val>0.2927367091178894</right_val></_></_>
        <_>
          <!-- tree 10 -->
          <_>
            <!-- root node -->
            <feature>
              <rects>
                <_>
                  16 19 6 3 -1.</_>
                <_>
                  16 20 6 1 3.</_></rects>
              <tilted>0</tilted></feature>
            <threshold>4.1788560338318348e-003</threshold>
            <left_node>1</left_node>
            <right_val>-0.6306452155113220</right_val></_>
          <_>
            <!-- node 1 -->
            <feature>
              <rects>
                <_>
                  9 6 4 4 -1.</_>
                <_>
                  10 6 2 4 2.</_></rects>
              <tilted>0</tilted></feature>
            <threshold>-2.6466310955584049e-003</threshold>
            <left_val>0.5408322215080261</left_val>
            <right_val>-0.0273685809224844</right_val></_></_>
        <_>
          <!-- tree 11 -->
          <_>
            <!-- root node -->
            <feature>
              <rects>
                <_>
                  14 0 3 2 -1.</_>
                <_>
                  15 0 1 2 3.</_></rects>
              <tilted>0</tilted></feature>
            <threshold>2.3398520424962044e-003</threshold>
            <left_node>1</left_node>
            <right_val>-0.6765890121459961</right_val></_>
          <_>
            <!-- node 1 -->
            <feature>
              <rects>
                <_>
                  11 4 4 4 -1.</_>
                <_>
                  13 4 2 4 2.</_></rects>
              <tilted>0</tilted></feature>
            <threshold>-2.1357659716159105e-003</threshold>
            <left_val>0.2808280885219574</left_val>
            <right_val>-0.1806962937116623</right_val></_></_>
        <_>
          <!-- tree 12 -->
          <_>
            <!-- root node -->
            <feature>
              <rects>
                <_>
                  4 17 3 3 -1.</_>
                <_>
                  4 18 3 1 3.</_></rects>
              <tilted>0</tilted></feature>
            <threshold>2.6165300514549017e-003</threshold>
            <left_node>1</left_node>
            <right_val>-0.6163678765296936</right_val></_>
          <_>
            <!-- node 1 -->
            <feature>
              <rects>
                <_>
                  8 17 1 3 -1.</_>
                <_>
                  8 18 1 1 3.</_></rects>
              <tilted>0</tilted></feature>
            <threshold>2.7776439310400747e-005</threshold>
            <left_val>-0.1535470932722092</left_val>
            <right_val>0.3324207067489624</right_val></_></_>
        <_>
          <!-- tree 13 -->
          <_>
            <!-- root node -->
            <feature>
              <rects>
                <_>
                  10 17 4 3 -1.</_>
                <_>
                  10 18 4 1 3.</_></rects>
              <tilted>0</tilted></feature>
            <threshold>-4.8440569080412388e-003</threshold>
            <left_val>0.4674192070960999</left_val>
            <right_node>1</right_node></_>
          <_>
            <!-- node 1 -->
            <feature>
              <rects>
                <_>
                  8 15 10 4 -1.</_>
                <_>
                  8 16 10 2 2.</_></rects>
              <tilted>0</tilted></feature>
            <threshold>-3.7483430933207273e-003</threshold>
            <left_val>0.1564262062311173</left_val>
            <right_val>-0.3637134134769440</right_val></_></_>
        <_>
          <!-- tree 14 -->
          <_>
            <!-- root node -->
            <feature>
              <rects>
                <_>
                  17 18 5 3 -1.</_>
                <_>
                  17 19 5 1 3.</_></rects>
              <tilted>0</tilted></feature>
            <threshold>3.8204500451683998e-003</threshold>
            <left_node>1</left_node>
            <right_val>-0.6223176121711731</right_val></_>
          <_>
            <!-- node 1 -->
            <feature>
              <rects>
                <_>
                  14 0 3 5 -1.</_>
                <_>
                  15 0 1 5 3.</_></rects>
              <tilted>0</tilted></feature>
            <threshold>-4.2033181525766850e-003</threshold>
            <left_val>-0.6175054907798767</left_val>
            <right_val>0.1637863963842392</right_val></_></_>
        <_>
          <!-- tree 15 -->
          <_>
            <!-- root node -->
            <feature>
              <rects>
                <_>
                  2 21 20 2 -1.</_>
                <_>
                  7 21 10 2 2.</_></rects>
              <tilted>0</tilted></feature>
            <threshold>-0.0226248204708099</threshold>
            <left_val>0.4451034069061279</left_val>
            <right_node>1</right_node></_>
          <_>
            <!-- node 1 -->
            <feature>
              <rects>
                <_>
                  4 4 19 20 -1.</_>
                <_>
                  4 9 19 10 2.</_></rects>
              <tilted>0</tilted></feature>
            <threshold>0.0509047582745552</threshold>
            <left_val>-0.4815959930419922</left_val>
            <right_val>0.0527904406189919</right_val></_></_>
        <_>
          <!-- tree 16 -->
          <_>
            <!-- root node -->
            <feature>
              <rects>
                <_>
                  10 4 8 12 -1.</_>
                <_>
                  10 10 8 6 2.</_></rects>
              <tilted>0</tilted></feature>
            <threshold>0.0888012871146202</threshold>
            <left_node>1</left_node>
            <right_val>-0.6379008889198303</right_val></_>
          <_>
            <!-- node 1 -->
            <feature>
              <rects>
                <_>
                  1 19 6 3 -1.</_>
                <_>
                  1 20 6 1 3.</_></rects>
              <tilted>0</tilted></feature>
            <threshold>3.6916120443493128e-003</threshold>
            <left_val>0.1696317940950394</left_val>
            <right_val>-0.5697581768035889</right_val></_></_></trees>
      <stage_threshold>-2.0230889320373535</stage_threshold>
      <parent>4</parent>
      <next>-1</next></_>
    <_>
      <!-- stage 6 -->
      <trees>
        <_>
          <!-- tree 0 -->
          <_>
            <!-- root node -->
            <feature>
              <rects>
                <_>
                  0 1 24 2 -1.</_>
                <_>
                  6 1 12 2 2.</_></rects>
              <tilted>0</tilted></feature>
            <threshold>0.0560610704123974</threshold>
            <left_val>-0.3127877116203308</left_val>
            <right_node>1</right_node></_>
          <_>
            <!-- node 1 -->
            <feature>
              <rects>
                <_>
                  5 6 4 12 -1.</_>
                <_>
                  5 9 4 6 2.</_></rects>
              <tilted>0</tilted></feature>
            <threshold>0.0127653302624822</threshold>
            <left_val>-0.3551833927631378</left_val>
            <right_val>0.7666844129562378</right_val></_></_>
        <_>
          <!-- tree 1 -->
          <_>
            <!-- root node -->
            <feature>
              <rects>
                <_>
                  15 5 5 12 -1.</_>
                <_>
                  15 9 5 4 3.</_></rects>
              <tilted>0</tilted></feature>
            <threshold>0.0230446401983500</threshold>
            <left_val>-0.4698554873466492</left_val>
            <right_node>1</right_node></_>
          <_>
            <!-- node 1 -->
            <feature>
              <rects>
                <_>
                  7 5 6 3 -1.</_>
                <_>
                  10 5 3 3 2.</_></rects>
              <tilted>0</tilted></feature>
            <threshold>5.7902159169316292e-003</threshold>
            <left_val>-0.1986891031265259</left_val>
            <right_val>0.5429980158805847</right_val></_></_>
        <_>
          <!-- tree 2 -->
          <_>
            <!-- root node -->
            <feature>
              <rects>
                <_>
                  0 2 8 18 -1.</_>
                <_>
                  4 2 4 18 2.</_></rects>
              <tilted>0</tilted></feature>
            <threshold>0.0826111063361168</threshold>
            <left_node>1</left_node>
            <right_val>0.4845454990863800</right_val></_>
          <_>
            <!-- node 1 -->
            <feature>
              <rects>
                <_>
                  6 8 8 2 -1.</_>
                <_>
                  6 9 8 1 2.</_></rects>
              <tilted>0</tilted></feature>
            <threshold>6.6047179279848933e-004</threshold>
            <left_val>-0.6072844862937927</left_val>
            <right_val>-0.0473591089248657</right_val></_></_>
        <_>
          <!-- tree 3 -->
          <_>
            <!-- root node -->
            <feature>
              <rects>
                <_>
                  9 18 6 6 -1.</_>
                <_>
                  9 20 6 2 3.</_></rects>
              <tilted>0</tilted></feature>
            <threshold>6.5131071023643017e-003</threshold>
            <left_val>-0.3327505886554718</left_val>
            <right_node>1</right_node></_>
          <_>
            <!-- node 1 -->
            <feature>
              <rects>
                <_>
                  20 14 4 6 -1.</_>
                <_>
                  20 14 2 6 2.</_></rects>
              <tilted>1</tilted></feature>
            <threshold>0.0236012507230043</threshold>
            <left_val>0.0124011700972915</left_val>
            <right_val>0.6486281156539917</right_val></_></_>
        <_>
          <!-- tree 4 -->
          <_>
            <!-- root node -->
            <feature>
              <rects>
                <_>
                  9 5 6 5 -1.</_>
                <_>
                  11 5 2 5 3.</_></rects>
              <tilted>0</tilted></feature>
            <threshold>0.0138194896280766</threshold>
            <left_val>-0.2093794941902161</left_val>
            <right_node>1</right_node></_>
          <_>
            <!-- node 1 -->
            <feature>
              <rects>
                <_>
                  11 9 3 2 -1.</_>
                <_>
                  11 10 3 1 2.</_></rects>
              <tilted>0</tilted></feature>
            <threshold>-1.2704960536211729e-003</threshold>
            <left_val>-0.4127731025218964</left_val>
            <right_val>0.4325942993164063</right_val></_></_>
        <_>
          <!-- tree 5 -->
          <_>
            <!-- root node -->
            <feature>
              <rects>
                <_>
                  18 13 2 3 -1.</_>
                <_>
                  18 14 2 1 3.</_></rects>
              <tilted>0</tilted></feature>
            <threshold>1.7760520568117499e-003</threshold>
            <left_node>1</left_node>
            <right_val>-0.7311748266220093</right_val></_>
          <_>
            <!-- node 1 -->
            <feature>
              <rects>
                <_>
                  18 13 2 3 -1.</_>
                <_>
                  18 14 2 1 3.</_></rects>
              <tilted>0</tilted></feature>
            <threshold>-2.3637090343981981e-003</threshold>
            <left_val>-0.7012724280357361</left_val>
            <right_val>0.1712124049663544</right_val></_></_>
        <_>
          <!-- tree 6 -->
          <_>
            <!-- root node -->
            <feature>
              <rects>
                <_>
                  4 7 13 2 -1.</_>
                <_>
                  4 8 13 1 2.</_></rects>
              <tilted>0</tilted></feature>
            <threshold>4.6207890845835209e-003</threshold>
            <left_node>1</left_node>
            <right_val>0.2274836003780365</right_val></_>
          <_>
            <!-- node 1 -->
            <feature>
              <rects>
                <_>
                  6 0 14 9 -1.</_>
                <_>
                  6 3 14 3 3.</_></rects>
              <tilted>0</tilted></feature>
            <threshold>0.0305743906646967</threshold>
            <left_val>-0.4873394072055817</left_val>
            <right_val>0.1536697000265122</right_val></_></_>
        <_>
          <!-- tree 7 -->
          <_>
            <!-- root node -->
            <feature>
              <rects>
                <_>
                  3 18 6 3 -1.</_>
                <_>
                  3 19 6 1 3.</_></rects>
              <tilted>0</tilted></feature>
            <threshold>-3.7186909466981888e-003</threshold>
            <left_val>-0.6404085755348206</left_val>
            <right_node>1</right_node></_>
          <_>
            <!-- node 1 -->
            <feature>
              <rects>
                <_>
                  3 18 4 3 -1.</_>
                <_>
                  3 19 4 1 3.</_></rects>
              <tilted>0</tilted></feature>
            <threshold>3.2191548962146044e-003</threshold>
            <left_val>0.1828625053167343</left_val>
            <right_val>-0.5904557108879089</right_val></_></_>
        <_>
          <!-- tree 8 -->
          <_>
            <!-- root node -->
            <feature>
              <rects>
                <_>
                  8 5 8 16 -1.</_>
                <_>
                  8 13 8 8 2.</_></rects>
              <tilted>0</tilted></feature>
            <threshold>0.0327016413211823</threshold>
            <left_node>1</left_node>
            <right_val>-0.4304546117782593</right_val></_>
          <_>
            <!-- node 1 -->
            <feature>
              <rects>
                <_>
                  9 13 7 2 -1.</_>
                <_>
                  9 14 7 1 2.</_></rects>
              <tilted>0</tilted></feature>
            <threshold>1.2391719501465559e-003</threshold>
            <left_val>-0.0440137088298798</left_val>
            <right_val>0.4878028929233551</right_val></_></_>
        <_>
          <!-- tree 9 -->
          <_>
            <!-- root node -->
            <feature>
              <rects>
                <_>
                  6 16 4 4 -1.</_>
                <_>
                  6 16 2 2 2.</_>
                <_>
                  8 18 2 2 2.</_></rects>
              <tilted>0</tilted></feature>
            <threshold>2.0639349240809679e-003</threshold>
            <left_node>1</left_node>
            <right_val>0.2930999994277954</right_val></_>
          <_>
            <!-- node 1 -->
            <feature>
              <rects>
                <_>
                  7 14 4 4 -1.</_>
                <_>
                  7 14 2 2 2.</_>
                <_>
                  9 16 2 2 2.</_></rects>
              <tilted>0</tilted></feature>
            <threshold>8.6676317732781172e-004</threshold>
            <left_val>-0.3907983005046845</left_val>
            <right_val>0.1432304978370667</right_val></_></_>
        <_>
          <!-- tree 10 -->
          <_>
            <!-- root node -->
            <feature>
              <rects>
                <_>
                  17 5 1 10 -1.</_>
                <_>
                  17 10 1 5 2.</_></rects>
              <tilted>0</tilted></feature>
            <threshold>4.4091840391047299e-004</threshold>
            <left_val>-0.4488011896610260</left_val>
            <right_node>1</right_node></_>
          <_>
            <!-- node 1 -->
            <feature>
              <rects>
                <_>
                  19 9 4 4 -1.</_>
                <_>
                  19 10 4 2 2.</_></rects>
              <tilted>0</tilted></feature>
            <threshold>6.8520959466695786e-003</threshold>
            <left_val>0.1789156049489975</left_val>
            <right_val>-0.7313203215599060</right_val></_></_>
        <_>
          <!-- tree 11 -->
          <_>
            <!-- root node -->
            <feature>
              <rects>
                <_>
                  18 12 6 6 -1.</_>
                <_>
                  21 12 3 6 2.</_></rects>
              <tilted>0</tilted></feature>
            <threshold>0.0286039002239704</threshold>
            <left_node>1</left_node>
            <right_val>0.5626122951507568</right_val></_>
          <_>
            <!-- node 1 -->
            <feature>
              <rects>
                <_>
                  18 0 6 18 -1.</_>
                <_>
                  21 0 3 18 2.</_></rects>
              <tilted>0</tilted></feature>
            <threshold>-0.0449712797999382</threshold>
            <left_val>0.2363072037696838</left_val>
            <right_val>-0.3106868863105774</right_val></_></_>
        <_>
          <!-- tree 12 -->
          <_>
            <!-- root node -->
            <feature>
              <rects>
                <_>
                  3 12 2 3 -1.</_>
                <_>
                  3 13 2 1 3.</_></rects>
              <tilted>0</tilted></feature>
            <threshold>1.5043920138850808e-003</threshold>
            <left_node>1</left_node>
            <right_val>-0.5914850234985352</right_val></_>
          <_>
            <!-- node 1 -->
            <feature>
              <rects>
                <_>
                  7 0 3 4 -1.</_>
                <_>
                  8 0 1 4 3.</_></rects>
              <tilted>0</tilted></feature>
            <threshold>3.2313719857484102e-003</threshold>
            <left_val>0.1572887003421783</left_val>
            <right_val>-0.6022282838821411</right_val></_></_>
        <_>
          <!-- tree 13 -->
          <_>
            <!-- root node -->
            <feature>
              <rects>
                <_>
                  7 0 3 4 -1.</_>
                <_>
                  8 0 1 4 3.</_></rects>
              <tilted>0</tilted></feature>
            <threshold>-3.5082269459962845e-003</threshold>
            <left_val>-0.6477916240692139</left_val>
            <right_node>1</right_node></_>
          <_>
            <!-- node 1 -->
            <feature>
              <rects>
                <_>
                  9 2 5 6 -1.</_>
                <_>
                  7 4 5 2 3.</_></rects>
              <tilted>1</tilted></feature>
            <threshold>-6.2997909262776375e-003</threshold>
            <left_val>0.2083415985107422</left_val>
            <right_val>-0.2981672883033752</right_val></_></_>
        <_>
          <!-- tree 14 -->
          <_>
            <!-- root node -->
            <feature>
              <rects>
                <_>
                  11 16 3 3 -1.</_>
                <_>
                  11 17 3 1 3.</_></rects>
              <tilted>0</tilted></feature>
            <threshold>-3.3598989248275757e-003</threshold>
            <left_val>0.3632226884365082</left_val>
            <right_node>1</right_node></_>
          <_>
            <!-- node 1 -->
            <feature>
              <rects>
                <_>
                  8 15 8 3 -1.</_>
                <_>
                  8 16 8 1 3.</_></rects>
              <tilted>0</tilted></feature>
            <threshold>-4.7944020479917526e-003</threshold>
            <left_val>0.2809030115604401</left_val>
            <right_val>-0.3332997858524323</right_val></_></_>
        <_>
          <!-- tree 15 -->
          <_>
            <!-- root node -->
            <feature>
              <rects>
                <_>
                  10 7 4 3 -1.</_>
                <_>
                  10 8 4 1 3.</_></rects>
              <tilted>0</tilted></feature>
            <threshold>-4.3627489358186722e-003</threshold>
            <left_val>-0.6136716008186340</left_val>
            <right_node>1</right_node></_>
          <_>
            <!-- node 1 -->
            <feature>
              <rects>
                <_>
                  11 15 3 4 -1.</_>
                <_>
                  11 16 3 2 2.</_></rects>
              <tilted>0</tilted></feature>
            <threshold>3.8447938859462738e-003</threshold>
            <left_val>-0.0265590101480484</left_val>
            <right_val>0.5786157846450806</right_val></_></_>
        <_>
          <!-- tree 16 -->
          <_>
            <!-- root node -->
            <feature>
              <rects>
                <_>
                  16 18 5 3 -1.</_>
                <_>
                  16 19 5 1 3.</_></rects>
              <tilted>0</tilted></feature>
            <threshold>-3.3784140832722187e-003</threshold>
            <left_val>-0.5712202191352844</left_val>
            <right_node>1</right_node></_>
          <_>
            <!-- node 1 -->
            <feature>
              <rects>
                <_>
                  17 18 4 2 -1.</_>
                <_>
                  17 19 4 1 2.</_></rects>
              <tilted>0</tilted></feature>
            <threshold>-1.0235860099783167e-004</threshold>
            <left_val>0.3235177099704742</left_val>
            <right_val>-0.1591383069753647</right_val></_></_>
        <_>
          <!-- tree 17 -->
          <_>
            <!-- root node -->
            <feature>
              <rects>
                <_>
                  16 0 3 12 -1.</_>
                <_>
                  17 0 1 12 3.</_></rects>
              <tilted>0</tilted></feature>
            <threshold>6.2359198927879333e-003</threshold>
            <left_node>1</left_node>
            <right_val>-0.5489504933357239</right_val></_>
          <_>
            <!-- node 1 -->
            <feature>
              <rects>
                <_>
                  18 15 6 3 -1.</_>
                <_>
                  18 16 6 1 3.</_></rects>
              <tilted>0</tilted></feature>
            <threshold>-4.6787029132246971e-003</threshold>
            <left_val>-0.6223133206367493</left_val>
            <right_val>0.1555898934602737</right_val></_></_>
        <_>
          <!-- tree 18 -->
          <_>
            <!-- root node -->
            <feature>
              <rects>
                <_>
                  6 4 4 3 -1.</_>
                <_>
                  6 5 4 1 3.</_></rects>
              <tilted>0</tilted></feature>
            <threshold>-2.6372380089014769e-003</threshold>
            <left_val>0.3118968904018402</left_val>
            <right_node>1</right_node></_>
          <_>
            <!-- node 1 -->
            <feature>
              <rects>
                <_>
                  6 4 3 3 -1.</_>
                <_>
                  6 5 3 1 3.</_></rects>
              <tilted>0</tilted></feature>
            <threshold>1.3990890001878142e-003</threshold>
            <left_val>-0.3967399895191193</left_val>
            <right_val>0.1900150030851364</right_val></_></_>
        <_>
          <!-- tree 19 -->
          <_>
            <!-- root node -->
            <feature>
              <rects>
                <_>
                  3 13 4 4 -1.</_>
                <_>
                  3 14 4 2 2.</_></rects>
              <tilted>0</tilted></feature>
            <threshold>1.9989649299532175e-003</threshold>
            <left_node>1</left_node>
            <right_val>-0.5242192149162293</right_val></_>
          <_>
            <!-- node 1 -->
            <feature>
              <rects>
                <_>
                  11 7 2 3 -1.</_>
                <_>
                  11 8 2 1 3.</_></rects>
              <tilted>0</tilted></feature>
            <threshold>2.2923389915376902e-003</threshold>
            <left_val>0.1798052042722702</left_val>
            <right_val>-0.5473588705062866</right_val></_></_></trees>
      <stage_threshold>-2.0539159774780273</stage_threshold>
      <parent>5</parent>
      <next>-1</next></_>
    <_>
      <!-- stage 7 -->
      <trees>
        <_>
          <!-- tree 0 -->
          <_>
            <!-- root node -->
            <feature>
              <rects>
                <_>
                  0 2 24 1 -1.</_>
                <_>
                  6 2 12 1 2.</_></rects>
              <tilted>0</tilted></feature>
            <threshold>0.0297226198017597</threshold>
            <left_val>-0.2880522012710571</left_val>
            <right_node>1</right_node></_>
          <_>
            <!-- node 1 -->
            <feature>
              <rects>
                <_>
                  16 6 2 6 -1.</_>
                <_>
                  16 9 2 3 2.</_></rects>
              <tilted>0</tilted></feature>
            <threshold>6.6078561358153820e-003</threshold>
            <left_val>-0.1729463934898377</left_val>
            <right_val>0.7949296236038208</right_val></_></_>
        <_>
          <!-- tree 1 -->
          <_>
            <!-- root node -->
            <feature>
              <rects>
                <_>
                  7 15 6 3 -1.</_>
                <_>
                  6 16 6 1 3.</_></rects>
              <tilted>1</tilted></feature>
            <threshold>7.5838011689484119e-003</threshold>
            <left_node>1</left_node>
            <right_val>0.5288094878196716</right_val></_>
          <_>
            <!-- node 1 -->
            <feature>
              <rects>
                <_>
                  5 6 5 12 -1.</_>
                <_>
                  5 9 5 6 2.</_></rects>
              <tilted>0</tilted></feature>
            <threshold>0.0170067194849253</threshold>
            <left_val>-0.5991997122764587</left_val>
            <right_val>-0.0104213301092386</right_val></_></_>
        <_>
          <!-- tree 2 -->
          <_>
            <!-- root node -->
            <feature>
              <rects>
                <_>
                  18 12 1 2 -1.</_>
                <_>
                  18 13 1 1 2.</_></rects>
              <tilted>0</tilted></feature>
            <threshold>-1.1665249985526316e-005</threshold>
            <left_node>1</left_node>
            <right_val>-0.4082559943199158</right_val></_>
          <_>
            <!-- node 1 -->
            <feature>
              <rects>
                <_>
                  9 5 6 4 -1.</_>
                <_>
                  11 5 2 4 3.</_></rects>
              <tilted>0</tilted></feature>
            <threshold>8.5133640095591545e-003</threshold>
            <left_val>-0.1487751007080078</left_val>
            <right_val>0.4885207116603851</right_val></_></_>
        <_>
          <!-- tree 3 -->
          <_>
            <!-- root node -->
            <feature>
              <rects>
                <_>
                  17 15 4 5 -1.</_>
                <_>
                  18 16 2 5 2.</_></rects>
              <tilted>1</tilted></feature>
            <threshold>0.0112467100843787</threshold>
            <left_val>-0.1823965013027191</left_val>
            <right_node>1</right_node></_>
          <_>
            <!-- node 1 -->
            <feature>
              <rects>
                <_>
                  14 12 7 8 -1.</_>
                <_>
                  14 16 7 4 2.</_></rects>
              <tilted>0</tilted></feature>
            <threshold>8.7283626198768616e-003</threshold>
            <left_val>0.6319931745529175</left_val>
            <right_val>-0.3975178897380829</right_val></_></_>
        <_>
          <!-- tree 4 -->
          <_>
            <!-- root node -->
            <feature>
              <rects>
                <_>
                  1 9 4 3 -1.</_>
                <_>
                  1 10 4 1 3.</_></rects>
              <tilted>0</tilted></feature>
            <threshold>4.0519940666854382e-003</threshold>
            <left_node>1</left_node>
            <right_val>-0.6465513110160828</right_val></_>
          <_>
            <!-- node 1 -->
            <feature>
              <rects>
                <_>
                  2 9 8 3 -1.</_>
                <_>
                  2 10 8 1 3.</_></rects>
              <tilted>0</tilted></feature>
            <threshold>4.2141909943893552e-005</threshold>
            <left_val>-0.2571189105510712</left_val>
            <right_val>0.2884803116321564</right_val></_></_>
        <_>
          <!-- tree 5 -->
          <_>
            <!-- root node -->
            <feature>
              <rects>
                <_>
                  6 14 9 3 -1.</_>
                <_>
                  6 15 9 1 3.</_></rects>
              <tilted>0</tilted></feature>
            <threshold>3.8309679366648197e-003</threshold>
            <left_node>1</left_node>
            <right_val>0.3233182132244110</right_val></_>
          <_>
            <!-- node 1 -->
            <feature>
              <rects>
                <_>
                  10 15 5 3 -1.</_>
                <_>
                  10 16 5 1 3.</_></rects>
              <tilted>0</tilted></feature>
            <threshold>5.4246210493147373e-003</threshold>
            <left_val>-0.3103584945201874</left_val>
            <right_val>0.3879506886005402</right_val></_></_>
        <_>
          <!-- tree 6 -->
          <_>
            <!-- root node -->
            <feature>
              <rects>
                <_>
                  6 1 2 1 -1.</_>
                <_>
                  7 1 1 1 2.</_></rects>
              <tilted>0</tilted></feature>
